<?xml version="1.0"?>
<opencv_storage>
<WinesClassification type_id="opencv-ml-ann-mlp">
  <layer_sizes type_id="opencv-matrix">
    <rows>1</rows>
    <cols>3</cols>
    <dt>i</dt>
    <data>
      11 9 10</data></layer_sizes>
  <activation_function>SIGMOID_SYM</activation_function>
  <f_param1>1.</f_param1>
  <f_param2>1.</f_param2>
  <min_val>-9.4999999999999996e-001</min_val>
  <max_val>9.4999999999999996e-001</max_val>
  <min_val1>-9.7999999999999998e-001</min_val1>
  <max_val1>9.7999999999999998e-001</max_val1>
  <training_params>
    <train_method>BACKPROP</train_method>
    <dw_scale>1.0000000000000001e-001</dw_scale>
    <moment_scale>1.0000000000000001e-001</moment_scale>
    <term_criteria><epsilon>9.9999997473787516e-005</epsilon>
      <iterations>10000</iterations></term_criteria></training_params>
  <input_scale>
    1.2623718184420978e+001 -3.7050506560373564e+000
    1.0349366243975970e+001 -2.0243265136838651e+000
    1.3555300651125759e+001 -2.7444449798743991e+000
    1.3128831651214048e+001 -1.1701120496597728e+000
    1.4937176369400357e+001 -1.6450008508324716e+000
    1.6583499650958267e+001 -1.9380697561532929e+000
    1.0088700217784440e+001 -3.0405232699185984e+000
    1.7902827288521351e+001 -2.3916291559581446e+000
    7.3140508842327030e+000 -3.1146172518973234e+000
    7.7513604437901700e+000 -2.4151368448720989e+000
    5.0301032737488116e+000 -2.0333069656211551e+000</input_scale>
  <output_scale>
    1. 0. 1. 0. 1. 0. 5.2631578947368418e-001 4.9999999999999994e-001
    5.2631578947368418e-001 4.9999999999999994e-001
    5.2631578947368418e-001 4.9999999999999994e-001
    5.2631578947368418e-001 4.9999999999999994e-001
    5.2631578947368418e-001 4.9999999999999994e-001
    5.2631578947368418e-001 4.9999999999999994e-001
    5.2631578947368418e-001 4.9999999999999994e-001</output_scale>
  <inv_output_scale>
    1. 0. 1. 0. 1. 0. 1.8999999999999999e+000 -9.4999999999999996e-001
    1.8999999999999999e+000 -9.4999999999999996e-001
    1.8999999999999999e+000 -9.4999999999999996e-001
    1.8999999999999999e+000 -9.4999999999999996e-001
    1.8999999999999999e+000 -9.4999999999999996e-001
    1.8999999999999999e+000 -9.4999999999999996e-001
    1.8999999999999999e+000 -9.4999999999999996e-001</inv_output_scale>
  <weights>
    <_>
      2.4154418695487074e+001 1.8377606242209361e+000
      -6.4082214101442492e-001 -1.6453719175105739e+000
      -9.9188139570515492e+000 -1.3250713256174433e+000
      5.9212727743498501e+000 2.8225731514464205e+000
      6.4899222328061368e-001 1.6192230511204006e+001
      -3.1318498593507131e+000 -7.9523676698274928e+000
      -2.1384553898366523e+000 5.9119903204874911e+000
      -1.6108329957346488e+000 -4.3561808660111776e+000
      3.3866080636599101e+000 -7.8093572802227326e-002
      9.1191363636831269e+001 1.2097053428845637e-001
      9.3389495957490998e-001 3.1668638955406929e+000
      1.1698391408681652e+000 1.2315272164800850e+000
      8.5673684340307699e-001 -1.3472146413024291e+000
      -5.8486404341726734e+000 2.5612513666198367e+002
      5.3477339460424664e+000 2.6932719180404940e+000
      6.6527129366564690e+000 3.8273718115433457e+000
      4.4169781810607534e+000 2.3663560296626489e+000
      1.7783508191610837e+000 -1.4105067083516032e+000
      1.5223019141495550e+002 -7.5262405334711353e+000
      -6.9556043884639278e+000 3.5202572587269829e+000
      -3.8360467989619944e-002 -3.4912198724011279e-001
      1.7478543972938556e+000 -3.8680904567838184e+000
      -3.0373074270043996e+000 2.2556277384853087e+002
      5.2924090759147804e+000 3.9488408571191180e+000
      3.7990362269373565e+000 5.2563742059667078e+000
      4.6180864152222920e+000 7.4649733262805595e-001
      3.6579916870773737e+000 2.2991186816153650e+000
      2.8270769225641146e+002 -3.8051952323913305e+000
      -5.1732697026965422e+000 2.8685370555832326e+000
      -3.1020213900656488e+000 1.5246443767654854e+000
      -2.2534581293155573e-001 -2.7259481941654142e+000
      1.2266360588377281e+000 3.1991498333507388e+002
      -5.1414725434262634e+000 -1.7844891626274972e+000
      3.0165295269715569e+000 3.1434996784249032e+000
      -3.5020670849663800e+000 1.6968509312285733e+000
      -4.2351839598105476e+000 -6.8472985356316329e-001
      -3.0203654842287150e+001 2.3127472147116199e+000
      2.7808644832750112e-001 4.1634643763841837e+000
      2.6889646982022164e+000 1.3474493821713376e+000
      2.7302804267738119e+000 4.3108410275394631e+000
      2.1670680981047411e-002 1.9225848222381995e+001
      2.5724546881137400e-001 3.0592559873798200e+000
      3.0922268562614752e+000 2.1230904346678345e+000
      5.8245997730552923e-001 8.4645502059823496e-001
      2.1343219429639428e+000 -4.9508335648062191e-001
      -2.8280758293656686e+002 3.9683798960954362e+000
      9.5848683246197535e+000 2.4943616969229640e-001
      -9.7847908082523560e-001 8.6494297516814300e-001
      -1.7409993829252428e+000 2.4470111288178913e+000
      -2.4614323754192102e+000 -7.5755317174799430e+001
      -4.2301912310330572e+000 7.1205559888668200e+000
      4.1311881133690855e+000 -3.1772024198491784e+000
      9.8333365998256514e+000 9.2792345800721137e+000
      -1.2707165673364955e+001 -1.1017165239142550e+001</_>
    <_>
      4.3515319509993771e-019 1.6712590494214866e-018
      -2.5031882888749150e-018 2.2440327345756356e-001
      1.0419434570449558e-001 2.2872757075743003e-002
      1.9883111001564649e-001 2.2573356321861818e-001
      -2.5811005527349262e-001 2.8602962918097937e-002
      -9.9577345063727773e-018 -8.0831657030772295e-018
      -1.0115910410609552e-017 2.5942170629200755e-002
      -5.3501656936094999e-001 -5.4213970762013608e-001
      -2.4070602431945054e-001 6.0993205543300999e-001
      4.9423454838668746e-001 1.7997715238722466e-002
      -1.6000260866763350e-018 -2.9989345108353932e-018
      -8.4852195334335775e-019 1.0977537937502407e-001
      1.0606479487976885e-001 -8.0636667046717292e-001
      9.7936928657731370e-001 3.5578295320045170e-003
      -1.2345863576500363e-001 -2.0270739005435159e-002
      -1.9186811141458981e-017 -1.9694790749467259e-017
      -2.1342819331060598e-017 1.1500271728789295e-001
      6.5573002045293349e-001 -4.6169610091378777e-001
      2.1586164430438404e-001 -3.7872980607898193e-001
      4.7051730324282304e-001 -5.9740249030416685e-002
      9.4726335623144538e-018 8.2918373221881067e-018
      8.9279741597848019e-018 -2.6616102326885188e-001
      1.2887369263384643e-001 6.4956461134788646e-001
      -2.6717678726109656e-001 -1.1507689502442210e-001
      3.4779008072812485e-002 -7.3939675349741713e-003
      2.8935868860347798e-017 2.5992946684240005e-017
      2.6834303225005569e-017 -3.9530833331862636e-001
      -1.4027731359058166e+000 -4.9896735084146493e-001
      7.7112621921218183e-001 1.7046606801905102e+000
      2.5892626065055691e-001 2.6463911903115506e-002
      9.5762927009565273e-018 5.2010156929264696e-018
      7.9838660933263519e-018 2.3198333947880376e-001
      -3.1795207258745872e-001 1.2398261213904871e+000
      -5.2437506442478510e-001 -2.1069219104174067e-001
      -5.6986355593181472e-002 8.1312959674699620e-002
      -6.6204689450809976e-018 -3.0626100872938697e-018
      -8.5062991062287164e-018 5.4487897187367706e-001
      7.5875295482754812e-001 -1.5214260916479736e+000
      -7.9136135887227743e-001 6.7498718263299917e-001
      4.3312546791872042e-001 1.6070695124645928e-001
      -1.5618556333683209e-017 -1.0362757938196674e-017
      -1.3050096163605162e-017 6.4040508294754039e-001
      -4.2974993977384884e-001 1.4338740510372785e+000
      -6.2675482215150802e-001 -1.5615077573372815e+000
      -3.4809278973002883e-001 5.3256281202595469e-003
      -3.0031086852761277e-017 -3.2936842888316152e-017
      -3.2182863347361809e-017 -2.5978926735879444e+000
      -2.1505441971106625e+000 -1.3879330658214957e+000
      -1.9249353295488389e+000 -4.6355387721935477e+000
      -3.1788750535387336e+000 -3.5747896212882848e+000</_></weights></WinesClassification>
</opencv_storage>
