<?xml version="1.0"?>
<opencv_storage>
<WinesClassification type_id="opencv-ml-ann-mlp">
  <layer_sizes type_id="opencv-matrix">
    <rows>1</rows>
    <cols>3</cols>
    <dt>i</dt>
    <data>
      11 9 10</data></layer_sizes>
  <activation_function>SIGMOID_SYM</activation_function>
  <f_param1>1.</f_param1>
  <f_param2>1.</f_param2>
  <min_val>-9.4999999999999996e-001</min_val>
  <max_val>9.4999999999999996e-001</max_val>
  <min_val1>-9.7999999999999998e-001</min_val1>
  <max_val1>9.7999999999999998e-001</max_val1>
  <training_params>
    <train_method>BACKPROP</train_method>
    <dw_scale>1.0000000000000001e-001</dw_scale>
    <moment_scale>1.0000000000000001e-001</moment_scale>
    <term_criteria><epsilon>9.9999997473787516e-005</epsilon>
      <iterations>10000</iterations></term_criteria></training_params>
  <input_scale>
    1.2313443685000415e+001 -3.6183771909611946e+000
    1.0486427897387220e+001 -2.0281913745512545e+000
    1.4232291252570255e+001 -2.8576975179671535e+000
    1.3090469850391404e+001 -1.1529859796851651e+000
    1.5000604344225103e+001 -1.6464049801664502e+000
    1.6672065525309005e+001 -1.9310570574997965e+000
    1.0108244881239841e+001 -3.0327315276778468e+000
    1.7963684033067143e+001 -2.3949091501340036e+000
    7.1759847786034650e+000 -3.0678624520310667e+000
    7.6810774586969579e+000 -2.4061892950419104e+000
    5.1181226759769221e+000 -2.0650234123409961e+000</input_scale>
  <output_scale>
    1. 0. 1. 0. 1. 0. 5.2631578947368418e-001 4.9999999999999994e-001
    5.2631578947368418e-001 4.9999999999999994e-001
    5.2631578947368418e-001 4.9999999999999994e-001
    5.2631578947368418e-001 4.9999999999999994e-001
    5.2631578947368418e-001 4.9999999999999994e-001
    5.2631578947368418e-001 4.9999999999999994e-001
    5.2631578947368418e-001 4.9999999999999994e-001</output_scale>
  <inv_output_scale>
    1. 0. 1. 0. 1. 0. 1.8999999999999999e+000 -9.4999999999999996e-001
    1.8999999999999999e+000 -9.4999999999999996e-001
    1.8999999999999999e+000 -9.4999999999999996e-001
    1.8999999999999999e+000 -9.4999999999999996e-001
    1.8999999999999999e+000 -9.4999999999999996e-001
    1.8999999999999999e+000 -9.4999999999999996e-001
    1.8999999999999999e+000 -9.4999999999999996e-001</inv_output_scale>
  <weights>
    <_>
      1.5995215427850431e+002 -3.7354907069832238e-001
      2.0658755875943062e+000 -8.9950926112753793e-001
      -7.4373967715387890e+000 -1.2091901679539541e+000
      -3.6767560912692181e+000 3.8853585145437357e+000
      -5.7858314340844021e+000 2.7537669170537760e+002
      -8.2532304691299583e+000 -1.0456656164089857e+001
      8.0606606260125115e+000 8.6988435943080891e+000
      -1.2261592371327590e+000 -5.3086348817519431e+000
      2.5698251413294226e-001 -2.1730324332360214e+000
      2.1712483134554861e+002 2.6279072240231134e+000
      -3.9239898603204542e+000 2.0516809287572455e+000
      1.5378766891415643e+000 1.4572930812044815e+000
      1.9775195698045867e+000 -1.7092158394549173e+000
      -7.5000324542617802e+000 7.2439056569994284e+002
      -2.7261044492858164e+000 9.2268149463764075e+000
      6.3879071482897958e+000 4.4453532828099442e+000
      6.5363495561325440e+000 8.0488752449303413e-001
      8.3893740720304919e+000 -5.8902467698689680e+000
      2.6606366199955681e+002 -1.4202614332183380e+001
      -1.5628747910098415e+000 1.5594624713258542e-001
      4.9320676137161978e+000 -8.1299614557378705e-002
      6.5313284278372379e+000 -6.4984756261511709e+000
      -2.9653422011370685e+000 4.9489713752045094e+002
      3.5177366136100376e+000 2.4673424327924800e+000
      6.8924077569765982e+000 9.0875131014024984e+000
      1.0209243624244161e+001 1.6659263609391757e+000
      5.7359652215746895e+000 1.2383441189760265e+000
      6.3723947435972502e+002 -5.9800195569276307e+000
      5.0526689419689150e+000 1.1071344145131013e+001
      8.5170097780721239e+000 -3.4035643751405803e-001
      -1.5005558397588166e+000 -7.5501503654393165e-001
      3.8200324919753776e+000 8.4305046552948488e+002
      3.5706639955538639e+000 -2.2298665813222671e+000
      2.0365854709804756e+000 6.4579422672524132e+000
      -7.2881340427873686e+000 1.0475824087143009e+000
      -1.2193452589873441e+001 2.8905332812747058e+000
      -1.1391351412415605e+002 1.5434758372755458e-001
      -1.9299833432543547e+000 2.2773279624461189e+000
      2.2233616199862980e+000 7.2572129567412902e-001
      -5.8141089418585779e+000 7.2546481488328292e+000
      -4.2355615278819663e+000 1.7021193165936106e+002
      -3.8997820099956881e-001 4.4761022239969854e+000
      -5.3766384929553324e+000 1.2044466351781560e+000
      1.8577616733011362e-001 6.8494591188210503e+000
      4.3432315237273800e+000 -4.6476359982996603e-002
      -6.5248938527860628e+002 1.3681855706856872e+001
      1.8006714393472457e+001 6.1432022179597494e+000
      -7.6981005676293659e+000 -1.1544260404758029e+000
      -6.1547562913376286e+000 6.2352629021508876e-001
      -2.7089613848160345e+000 -1.6690073417080490e+002
      9.4837811137828822e+000 4.7790522199080963e+000
      -1.4861035558937659e+000 2.7734797223177168e+000
      1.2922756413461743e+001 1.5083206757923547e+001
      -1.5770210716651146e+001 -1.4698384141920631e+001</_>
    <_>
      1.3247933224759409e-018 -9.6563670236548074e-018
      -6.5925683472871852e-018 3.2243382021720773e-001
      1.1142266222387573e-002 1.2206392541183277e-001
      -5.2207222624362226e-003 -1.7625352320881615e-001
      3.0992399045240746e-002 3.1848933750584327e-002
      2.3440921119618205e-018 2.8387314255175496e-018
      8.7896580419191864e-018 1.4507003856446449e-001
      -3.5366886470968102e-003 -6.5979073205661987e-001
      1.0199748928310617e+000 -1.9438070182964023e-001
      -4.4471471298906232e-002 -2.6170056394339784e-002
      3.1672563067524676e-018 1.9246445581331415e-018
      7.3229949414463521e-018 2.9078204802074632e-002
      -6.7906790962616467e-002 -1.2372520692562177e+000
      5.2200926229929290e-001 4.3997607919530801e-001
      2.6662748511857415e-001 1.5771179817761938e-002
      -6.0886490181918752e-018 -6.6643054839963908e-018
      -4.4923615413134387e-018 7.2003744916976364e-002
      -2.9061052959558226e-001 9.1424344285641790e-001
      -2.1188387248762423e-002 -5.8710832831784376e-001
      2.8948233352341529e-001 -2.8969552394831021e-002
      3.8027098386790599e-018 4.2758164436499280e-018
      4.4356182267671624e-018 -9.9217135287264557e-002
      5.1926682146165326e-001 -8.6694422213464573e-001
      8.4265405353780054e-001 -3.2676299254029217e-001
      -2.4317771208818281e-001 -5.6205794859640619e-002
      2.2247564572060929e-017 2.4627447230819384e-017
      2.2137466691298501e-017 -2.9804804188726375e-001
      -1.0753410167767237e+000 -4.5243986579666345e-001
      4.5119300379952032e-001 1.1676871635709101e+000
      3.0934790969221676e-001 4.6010876954649733e-002
      2.1494908716225633e-019 3.9162793914101314e-018
      2.5046703518236174e-019 6.2334448024977021e-002
      -9.1460856685068692e-001 9.3818945530854148e-001
      2.0142596561398676e-002 -2.6421379294113667e-001
      -5.2593115578759848e-002 -1.3276373181379633e-001
      -2.5749412193608092e-017 -2.2190917326215250e-017
      -2.3319129734190312e-017 2.8697708446511622e-001
      -2.8097267258833842e-002 -6.2712151299581675e-001
      -7.4228466976624574e-001 7.1925841208304653e-001
      1.9913076845545488e-001 1.6168304824003818e-001
      -2.0645599686033884e-017 -1.8793863430798984e-017
      -1.9153609165985751e-017 2.8814326737839524e-001
      -4.6706857063854579e-001 7.2214104955620195e-001
      -3.3244799404967351e-001 -9.5706943160889379e-001
      -2.2134873135752234e-001 -1.6290459496254756e-002
      -2.8866694359837519e-017 -3.0654703402613274e-017
      -2.8297499694291266e-017 -2.9358737651808324e+000
      -2.7059256123484299e+000 -5.6794552432371292e-001
      -1.8461232909897225e+000 -3.5617129262406073e+000
      -3.1775067243688477e+000 -3.4394004091260180e+000</_></weights></WinesClassification>
</opencv_storage>
